booster[0]:
0:[h1_mass<130.265793] yes=1,no=2,missing=1
	1:[h1_mass<71.4022522] yes=3,no=4,missing=3
		3:[hh_mass<259.791565] yes=7,no=8,missing=7
			7:leaf=-0.0257328991
			8:leaf=0.179451019
		4:[h2_mass<60.1387253] yes=9,no=10,missing=9
			9:leaf=0.0746214911
			10:leaf=-0.163542315
	2:[hh_mass<436.148743] yes=5,no=6,missing=5
		5:[h2_mass<60.8030815] yes=11,no=12,missing=11
			11:leaf=0.204347834
			12:leaf=0.0357333347
		6:[h2_mass<67.270874] yes=13,no=14,missing=13
			13:leaf=0.236111119
			14:leaf=0.144556552
booster[1]:
0:[h1_mass<130.265793] yes=1,no=2,missing=1
	1:[h1_mass<71.4022522] yes=3,no=4,missing=3
		3:[hh_mass<259.791565] yes=7,no=8,missing=7
			7:leaf=0.0257328991
			8:leaf=-0.179451019
		4:[h2_mass<60.1387253] yes=9,no=10,missing=9
			9:leaf=-0.0746214911
			10:leaf=0.163542315
	2:[hh_mass<436.148743] yes=5,no=6,missing=5
		5:[h2_mass<60.8030815] yes=11,no=12,missing=11
			11:leaf=-0.204347834
			12:leaf=-0.0357333347
		6:[h2_mass<67.270874] yes=13,no=14,missing=13
			13:leaf=-0.236111119
			14:leaf=-0.144556552
booster[2]:
0:[h1_mass<133.980377] yes=1,no=2,missing=1
	1:[h2_mass<70.1156006] yes=3,no=4,missing=3
		3:[hh_mass<250.445465] yes=7,no=8,missing=7
			7:leaf=-0.0563374273
			8:leaf=0.127581581
		4:[h2_mass<130.159592] yes=9,no=10,missing=9
			9:leaf=-0.130825892
			10:leaf=0.077425614
	2:[hh_mass<472.887451] yes=5,no=6,missing=5
		5:[h2_mass<57.9621544] yes=11,no=12,missing=11
			11:leaf=0.162899822
			12:leaf=0.0353207737
		6:[h2_mass<86.7275543] yes=13,no=14,missing=13
			13:leaf=0.168255553
			14:leaf=0.112549357
booster[3]:
0:[h1_mass<133.980377] yes=1,no=2,missing=1
	1:[h2_mass<70.1156006] yes=3,no=4,missing=3
		3:[hh_mass<250.445465] yes=7,no=8,missing=7
			7:leaf=0.0563374348
			8:leaf=-0.127581581
		4:[h2_mass<130.159592] yes=9,no=10,missing=9
			9:leaf=0.130825892
			10:leaf=-0.077425614
	2:[hh_mass<472.887451] yes=5,no=6,missing=5
		5:[h2_mass<57.9621544] yes=11,no=12,missing=11
			11:leaf=-0.162899807
			12:leaf=-0.0353207476
		6:[h2_mass<86.7275543] yes=13,no=14,missing=13
			13:leaf=-0.168255538
			14:leaf=-0.11254932
booster[4]:
0:[h1_mass<127.5252] yes=1,no=2,missing=1
	1:[h1_mass<58.9644241] yes=3,no=4,missing=3
		3:[hh_mass<243.805359] yes=7,no=8,missing=7
			7:leaf=0.0502090156
			8:leaf=0.162897348
		4:[h2_mass<136.432037] yes=9,no=10,missing=9
			9:leaf=-0.090379037
			10:leaf=0.0635881424
	2:[hh_mass<372.9599] yes=5,no=6,missing=5
		5:[h2_mass<130.683136] yes=11,no=12,missing=11
			11:leaf=0.0344517753
			12:leaf=-0.0436309129
		6:[h2_mass<67.3742371] yes=13,no=14,missing=13
			13:leaf=0.136312529
			14:leaf=0.0677105337
booster[5]:
0:[h1_mass<127.5252] yes=1,no=2,missing=1
	1:[h1_mass<58.9644241] yes=3,no=4,missing=3
		3:[hh_mass<243.805359] yes=7,no=8,missing=7
			7:leaf=-0.0502090156
			8:leaf=-0.162897334
		4:[h2_mass<136.432037] yes=9,no=10,missing=9
			9:leaf=0.0903790444
			10:leaf=-0.0635881647
	2:[hh_mass<372.9599] yes=5,no=6,missing=5
		5:[h2_mass<130.683136] yes=11,no=12,missing=11
			11:leaf=-0.0344517753
			12:leaf=0.0436309129
		6:[h2_mass<67.3742371] yes=13,no=14,missing=13
			13:leaf=-0.136312529
			14:leaf=-0.0677105561
booster[6]:
0:[h2_mass<61.4050064] yes=1,no=2,missing=1
	1:[hh_mass<281.669525] yes=3,no=4,missing=3
		3:[h1_mass<47.1575851] yes=7,no=8,missing=7
			7:leaf=0.108126707
			8:leaf=-0.0338335
		4:[h1_mass<82.3881989] yes=9,no=10,missing=9
			9:leaf=0.177275151
			10:leaf=0.0827961639
	2:[h1_mass<124.592682] yes=5,no=6,missing=5
		5:[h1_mass<81.6720428] yes=11,no=12,missing=11
			11:leaf=0.0237887111
			12:leaf=-0.0921098441
		6:[hh_mass<420.84845] yes=13,no=14,missing=13
			13:leaf=0.00342730829
			14:leaf=0.0557336472
booster[7]:
0:[h2_mass<61.4050064] yes=1,no=2,missing=1
	1:[hh_mass<281.669525] yes=3,no=4,missing=3
		3:[h1_mass<47.1575851] yes=7,no=8,missing=7
			7:leaf=-0.108126715
			8:leaf=0.0338335186
		4:[h1_mass<82.3881989] yes=9,no=10,missing=9
			9:leaf=-0.177275136
			10:leaf=-0.0827961564
	2:[h1_mass<124.592682] yes=5,no=6,missing=5
		5:[h1_mass<81.6720428] yes=11,no=12,missing=11
			11:leaf=-0.0237886962
			12:leaf=0.0921098664
		6:[hh_mass<420.84845] yes=13,no=14,missing=13
			13:leaf=-0.00342730084
			14:leaf=-0.0557336397
booster[8]:
0:[h2_mass<51.9986954] yes=1,no=2,missing=1
	1:[hh_mass<215.382126] yes=3,no=4,missing=3
		3:[h1_mass<35.2976112] yes=7,no=8,missing=7
			7:leaf=0.0749685243
			8:leaf=-0.0549503565
		4:[h1_mass<54.187233] yes=9,no=10,missing=9
			9:leaf=0.167370349
			10:leaf=0.089119941
	2:[h1_mass<150.210007] yes=5,no=6,missing=5
		5:[h2_mass<126.283173] yes=11,no=12,missing=11
			11:leaf=-0.054236874
			12:leaf=0.0394660681
		6:[hh_mass<646.528564] yes=13,no=14,missing=13
			13:leaf=0.0261876862
			14:leaf=0.0780151263
booster[9]:
0:[h2_mass<51.9986954] yes=1,no=2,missing=1
	1:[hh_mass<215.382126] yes=3,no=4,missing=3
		3:[h1_mass<35.2976112] yes=7,no=8,missing=7
			7:leaf=-0.0749685541
			8:leaf=0.0549503528
		4:[h1_mass<54.187233] yes=9,no=10,missing=9
			9:leaf=-0.167370349
			10:leaf=-0.0891199484
	2:[h1_mass<150.210007] yes=5,no=6,missing=5
		5:[h2_mass<126.283173] yes=11,no=12,missing=11
			11:leaf=0.054236874
			12:leaf=-0.0394660756
		6:[hh_mass<646.528564] yes=13,no=14,missing=13
			13:leaf=-0.0261877012
			14:leaf=-0.0780151263
